<?xml version="1.0"?>
<opencv_storage>
<stage7>
  <maxWeakCount>5</maxWeakCount>
  <stageThreshold>-1.0953772068023682e+00</stageThreshold>
  <weakClassifiers>
    <_>
      <internalNodes>
        0 -1 68660 -3.5132538527250290e-02</internalNodes>
      <leafValues>
        7.7777779102325439e-01 -8.3027523756027222e-01</leafValues></_>
    <_>
      <internalNodes>
        0 -1 104743 8.8315067114308476e-04</internalNodes>
      <leafValues>
        -5.7677763700485229e-01 3.3114326000213623e-01</leafValues></_>
    <_>
      <internalNodes>
        0 -1 142153 5.7415361516177654e-04</internalNodes>
      <leafValues>
        -4.4129094481468201e-01 4.7298115491867065e-01</leafValues></_>
    <_>
      <internalNodes>
        0 -1 148289 -3.6558522842824459e-03</internalNodes>
      <leafValues>
        -9.4731783866882324e-01 2.2552540898323059e-01</leafValues></_>
    <_>
      <internalNodes>
        0 -1 94765 -1.4680665917694569e-03</internalNodes>
      <leafValues>
        6.3211709260940552e-01 -3.8047969341278076e-01</leafValues></_></weakClassifiers></stage7>
</opencv_storage>
