<?xml version="1.0"?>
<opencv_storage>
<stage6>
  <maxWeakCount>7</maxWeakCount>
  <stageThreshold>-1.4600070714950562e+00</stageThreshold>
  <weakClassifiers>
    <_>
      <internalNodes>
        0 -1 127167 6.8514600396156311e-02</internalNodes>
      <leafValues>
        -8.3833718299865723e-01 6.6666668653488159e-01</leafValues></_>
    <_>
      <internalNodes>
        0 -1 145909 1.6665193252265453e-03</internalNodes>
      <leafValues>
        -6.5302515029907227e-01 2.7699324488639832e-01</leafValues></_>
    <_>
      <internalNodes>
        0 -1 120938 -1.1058951495215297e-03</internalNodes>
      <leafValues>
        5.4145169258117676e-01 -4.3030989170074463e-01</leafValues></_>
    <_>
      <internalNodes>
        0 -1 71460 -1.0498253256082535e-01</internalNodes>
      <leafValues>
        3.5994386672973633e-01 -7.3591613769531250e-01</leafValues></_>
    <_>
      <internalNodes>
        0 -1 11943 -3.0299974605441093e-03</internalNodes>
      <leafValues>
        -8.1055456399917603e-01 2.3953650891780853e-01</leafValues></_>
    <_>
      <internalNodes>
        0 -1 148635 2.5061699561774731e-03</internalNodes>
      <leafValues>
        -4.2317175865173340e-01 5.4145890474319458e-01</leafValues></_>
    <_>
      <internalNodes>
        0 -1 59796 -1.2189200788270682e-04</internalNodes>
      <leafValues>
        4.0945497155189514e-01 -5.9795624017715454e-01</leafValues></_></weakClassifiers></stage6>
</opencv_storage>
