<?xml version="1.0"?>
<opencv_storage>
<stage5>
  <maxWeakCount>6</maxWeakCount>
  <stageThreshold>-1.1991559267044067e+00</stageThreshold>
  <weakClassifiers>
    <_>
      <internalNodes>
        0 -1 133179 4.6105600893497467e-02</internalNodes>
      <leafValues>
        -8.3066362142562866e-01 1.</leafValues></_>
    <_>
      <internalNodes>
        0 -1 140856 9.6734426915645599e-03</internalNodes>
      <leafValues>
        -6.7357295751571655e-01 2.6802510023117065e-01</leafValues></_>
    <_>
      <internalNodes>
        0 -1 159109 1.3101345393806696e-04</internalNodes>
      <leafValues>
        -6.0146486759185791e-01 4.0158942341804504e-01</leafValues></_>
    <_>
      <internalNodes>
        0 -1 14424 -2.2528752684593201e-02</internalNodes>
      <leafValues>
        2.9986965656280518e-01 -7.5145268440246582e-01</leafValues></_>
    <_>
      <internalNodes>
        0 -1 33276 -2.5045392103493214e-03</internalNodes>
      <leafValues>
        4.0747854113578796e-01 -6.5947180986404419e-01</leafValues></_>
    <_>
      <internalNodes>
        0 -1 108211 -3.3362396061420441e-03</internalNodes>
      <leafValues>
        -6.9413274526596069e-01 3.3716812729835510e-01</leafValues></_></weakClassifiers></stage5>
</opencv_storage>
