<?xml version="1.0"?>
<opencv_storage>
<stage10>
  <maxWeakCount>6</maxWeakCount>
  <stageThreshold>-1.2067790031433105e+00</stageThreshold>
  <weakClassifiers>
    <_>
      <internalNodes>
        0 -1 121076 2.2083047777414322e-02</internalNodes>
      <leafValues>
        -8.3448272943496704e-01 8.0000001192092896e-01</leafValues></_>
    <_>
      <internalNodes>
        0 -1 97657 -5.7867111172527075e-04</internalNodes>
      <leafValues>
        2.7282735705375671e-01 -5.8218765258789063e-01</leafValues></_>
    <_>
      <internalNodes>
        0 -1 133508 -6.6792248981073499e-04</internalNodes>
      <leafValues>
        5.1469212770462036e-01 -4.3912342190742493e-01</leafValues></_>
    <_>
      <internalNodes>
        0 -1 46186 -5.3349640220403671e-03</internalNodes>
      <leafValues>
        -6.2361264228820801e-01 3.8028967380523682e-01</leafValues></_>
    <_>
      <internalNodes>
        0 -1 128630 4.2706094682216644e-03</internalNodes>
      <leafValues>
        2.7622815966606140e-01 -7.3995316028594971e-01</leafValues></_>
    <_>
      <internalNodes>
        0 -1 155127 -1.5828998293727636e-03</internalNodes>
      <leafValues>
        -8.1243121623992920e-01 2.5769764184951782e-01</leafValues></_></weakClassifiers></stage10>
</opencv_storage>
