<?xml version="1.0"?>
<opencv_storage>
<stage12>
  <maxWeakCount>6</maxWeakCount>
  <stageThreshold>-1.4078304767608643e+00</stageThreshold>
  <weakClassifiers>
    <_>
      <internalNodes>
        0 -1 116319 8.5415020585060120e-03</internalNodes>
      <leafValues>
        -8.6046510934829712e-01 1.</leafValues></_>
    <_>
      <internalNodes>
        0 -1 111809 -1.0875641601160169e-03</internalNodes>
      <leafValues>
        6.7950606346130371e-01 -6.4156621694564819e-01</leafValues></_>
    <_>
      <internalNodes>
        0 -1 154759 4.7635030932724476e-04</internalNodes>
      <leafValues>
        -3.9860081672668457e-01 7.9499632120132446e-01</leafValues></_>
    <_>
      <internalNodes>
        0 -1 69764 6.3997551798820496e-02</internalNodes>
      <leafValues>
        -5.1594537496566772e-01 6.5815782546997070e-01</leafValues></_>
    <_>
      <internalNodes>
        0 -1 138308 -1.3181639369577169e-03</internalNodes>
      <leafValues>
        8.5430473089218140e-01 -4.1168642044067383e-01</leafValues></_>
    <_>
      <internalNodes>
        0 -1 154594 -4.7473923768848181e-04</internalNodes>
      <leafValues>
        7.2673517465591431e-01 -4.4003161787986755e-01</leafValues></_></weakClassifiers></stage12>
</opencv_storage>
